digraph Tree {
node [shape=box] ;
0 [label="X[2] <= 0.5\ngini = 0.499\nsamples = 493\nvalue = [258, 235]"] ;
1 [label="X[1] <= 0.5\ngini = 0.273\nsamples = 43\nvalue = [7, 36]"] ;
0 -> 1 [labeldistance=2.5, labelangle=45, headlabel="True"] ;
2 [label="X[0] <= 0.5\ngini = 0.403\nsamples = 25\nvalue = [7, 18]"] ;
1 -> 2 ;
3 [label="X[3] <= 1.0\ngini = 0.245\nsamples = 21\nvalue = [3, 18]"] ;
2 -> 3 ;
4 [label="X[4] <= 0.5\ngini = 0.208\nsamples = 17\nvalue = [2, 15]"] ;
3 -> 4 ;
5 [label="gini = 0.219\nsamples = 16\nvalue = [2, 14]"] ;
4 -> 5 ;
6 [label="gini = 0.0\nsamples = 1\nvalue = [0, 1]"] ;
4 -> 6 ;
7 [label="gini = 0.375\nsamples = 4\nvalue = [1, 3]"] ;
3 -> 7 ;
8 [label="gini = 0.0\nsamples = 4\nvalue = [4, 0]"] ;
2 -> 8 ;
9 [label="gini = 0.0\nsamples = 18\nvalue = [0, 18]"] ;
1 -> 9 ;
10 [label="X[1] <= 0.5\ngini = 0.493\nsamples = 450\nvalue = [251, 199]"] ;
0 -> 10 [labeldistance=2.5, labelangle=-45, headlabel="False"] ;
11 [label="X[0] <= 0.5\ngini = 0.44\nsamples = 223\nvalue = [150, 73]"] ;
10 -> 11 ;
12 [label="X[3] <= 0.5\ngini = 0.459\nsamples = 193\nvalue = [124, 69]"] ;
11 -> 12 ;
13 [label="gini = 0.444\nsamples = 3\nvalue = [1, 2]"] ;
12 -> 13 ;
14 [label="X[2] <= 1.5\ngini = 0.457\nsamples = 190\nvalue = [123, 67]"] ;
12 -> 14 ;
15 [label="X[3] <= 1.5\ngini = 0.423\nsamples = 23\nvalue = [16, 7]"] ;
14 -> 15 ;
16 [label="gini = 0.455\nsamples = 20\nvalue = [13, 7]"] ;
15 -> 16 ;
17 [label="gini = 0.0\nsamples = 3\nvalue = [3, 0]"] ;
15 -> 17 ;
18 [label="X[3] <= 1.5\ngini = 0.46\nsamples = 167\nvalue = [107, 60]"] ;
14 -> 18 ;
19 [label="gini = 0.444\nsamples = 3\nvalue = [2, 1]"] ;
18 -> 19 ;
20 [label="gini = 0.461\nsamples = 164\nvalue = [105, 59]"] ;
18 -> 20 ;
21 [label="X[0] <= 1.5\ngini = 0.231\nsamples = 30\nvalue = [26, 4]"] ;
11 -> 21 ;
22 [label="X[2] <= 1.5\ngini = 0.165\nsamples = 22\nvalue = [20, 2]"] ;
21 -> 22 ;
23 [label="gini = 0.375\nsamples = 4\nvalue = [3, 1]"] ;
22 -> 23 ;
24 [label="X[3] <= 1.5\ngini = 0.105\nsamples = 18\nvalue = [17, 1]"] ;
22 -> 24 ;
25 [label="gini = 0.0\nsamples = 2\nvalue = [2, 0]"] ;
24 -> 25 ;
26 [label="gini = 0.117\nsamples = 16\nvalue = [15, 1]"] ;
24 -> 26 ;
27 [label="gini = 0.375\nsamples = 8\nvalue = [6, 2]"] ;
21 -> 27 ;
28 [label="X[0] <= 0.5\ngini = 0.494\nsamples = 227\nvalue = [101, 126]"] ;
10 -> 28 ;
29 [label="X[3] <= 1.5\ngini = 0.291\nsamples = 17\nvalue = [3, 14]"] ;
28 -> 29 ;
30 [label="X[1] <= 1.5\ngini = 0.219\nsamples = 16\nvalue = [2, 14]"] ;
29 -> 30 ;
31 [label="X[2] <= 1.5\ngini = 0.231\nsamples = 15\nvalue = [2, 13]"] ;
30 -> 31 ;
32 [label="gini = 0.245\nsamples = 14\nvalue = [2, 12]"] ;
31 -> 32 ;
33 [label="gini = 0.0\nsamples = 1\nvalue = [0, 1]"] ;
31 -> 33 ;
34 [label="gini = 0.0\nsamples = 1\nvalue = [0, 1]"] ;
30 -> 34 ;
35 [label="gini = 0.0\nsamples = 1\nvalue = [1, 0]"] ;
29 -> 35 ;
36 [label="X[0] <= 1.5\ngini = 0.498\nsamples = 210\nvalue = [98, 112]"] ;
28 -> 36 ;
37 [label="X[1] <= 1.5\ngini = 0.496\nsamples = 164\nvalue = [75, 89]"] ;
36 -> 37 ;
38 [label="X[3] <= 0.5\ngini = 0.497\nsamples = 155\nvalue = [72, 83]"] ;
37 -> 38 ;
39 [label="gini = 0.444\nsamples = 3\nvalue = [1, 2]"] ;
38 -> 39 ;
40 [label="X[2] <= 1.5\ngini = 0.498\nsamples = 152\nvalue = [71, 81]"] ;
38 -> 40 ;
41 [label="X[3] <= 1.5\ngini = 0.498\nsamples = 47\nvalue = [22, 25]"] ;
40 -> 41 ;
42 [label="gini = 0.5\nsamples = 43\nvalue = [21, 22]"] ;
41 -> 42 ;
43 [label="gini = 0.375\nsamples = 4\nvalue = [1, 3]"] ;
41 -> 43 ;
44 [label="X[3] <= 1.5\ngini = 0.498\nsamples = 105\nvalue = [49, 56]"] ;
40 -> 44 ;
45 [label="gini = 0.0\nsamples = 2\nvalue = [0, 2]"] ;
44 -> 45 ;
46 [label="gini = 0.499\nsamples = 103\nvalue = [49, 54]"] ;
44 -> 46 ;
47 [label="X[2] <= 1.5\ngini = 0.444\nsamples = 9\nvalue = [3, 6]"] ;
37 -> 47 ;
48 [label="X[3] <= 1.5\ngini = 0.5\nsamples = 4\nvalue = [2, 2]"] ;
47 -> 48 ;
49 [label="gini = 0.444\nsamples = 3\nvalue = [1, 2]"] ;
48 -> 49 ;
50 [label="gini = 0.0\nsamples = 1\nvalue = [1, 0]"] ;
48 -> 50 ;
51 [label="X[3] <= 1.5\ngini = 0.32\nsamples = 5\nvalue = [1, 4]"] ;
47 -> 51 ;
52 [label="gini = 0.0\nsamples = 1\nvalue = [0, 1]"] ;
51 -> 52 ;
53 [label="gini = 0.375\nsamples = 4\nvalue = [1, 3]"] ;
51 -> 53 ;
54 [label="X[1] <= 1.5\ngini = 0.5\nsamples = 46\nvalue = [23, 23]"] ;
36 -> 54 ;
55 [label="X[3] <= 1.5\ngini = 0.494\nsamples = 9\nvalue = [5, 4]"] ;
54 -> 55 ;
56 [label="gini = 0.0\nsamples = 2\nvalue = [0, 2]"] ;
55 -> 56 ;
57 [label="gini = 0.408\nsamples = 7\nvalue = [5, 2]"] ;
55 -> 57 ;
58 [label="X[3] <= 1.5\ngini = 0.5\nsamples = 37\nvalue = [18, 19]"] ;
54 -> 58 ;
59 [label="X[2] <= 1.5\ngini = 0.48\nsamples = 10\nvalue = [6, 4]"] ;
58 -> 59 ;
60 [label="gini = 0.494\nsamples = 9\nvalue = [5, 4]"] ;
59 -> 60 ;
61 [label="gini = 0.0\nsamples = 1\nvalue = [1, 0]"] ;
59 -> 61 ;
62 [label="gini = 0.494\nsamples = 27\nvalue = [12, 15]"] ;
58 -> 62 ;
}